svm_type c_svc
kernel_type linear
nr_class 6
total_sv 219
rho -1.38894 -0.336403 -2.46143 1.07589 -0.0322141 0.733635 6.16634 7.34144 1.44721 -0.375261 0.709913 -3.81675 3.36015 1.56593 -0.387536
label 13 14 0 2 8 9
nr_sv 24 1 73 10 48 63
SV
0 0 0 1 0 1:0.94601941 2:0.51413929 3:0.39316896 
0 0 0 0.8530082044004713 0 1:0.84084886 2:0.35939923 3:0.084069073 
0 0 0 1 0 1:0.35005304 2:-0.066136003 3:-0.28685078 
0 0 0 1 0 1:0.3851099 2:0.16597413 3:-0.16321084 
0 1 0 0 0 1:-0.10568593 2:-0.56904125 3:-1.0905105 
0 0.1828560092279049 0 0 1 1:0.13971198 2:-0.29824612 3:-0.59595066 
0 0 0 1 0 1:0.45522359 2:0.088604078 3:-0.28685078 
0 0 0 1 0 1:0.42016673 2:0.088604078 3:-0.16321084 
0 0 0 1 0 1:0.56039411 2:0.20465913 3:-0.16321084 
0 0 0 0 1 1:0.17476882 2:-0.25956109 3:-0.53413069 
0 0 0 1 0 1:0.63050783 2:0.28202918 3:0.084069073 
0 0 0 1 0 1:0.42016673 2:0.088604078 3:-0.22503081 
0 0 0 1 0 1:0.35005304 2:0.011234039 3:-0.34867078 
0 0 0 1 0 1:0.63050783 2:0.28202918 3:0.084069073 
0.05647774826017739 0 1 1 0 1:1.0511899 2:0.66887939 3:0.51680893 
0 0 0 1 0 1:0.52533728 2:0.28202918 3:0.022249099 
0 0 0 1 0 1:0.24488251 2:-0.14350604 3:-0.41049075 
0 0.04354641421387769 0 0 0.5009946224270013 1:0.034541443 2:-0.33693114 3:-0.78141063 
0 0 0 1 0 1:0.84084886 2:0.43676925 3:0.084069073 
0 1 0 1 1 1:-0.10568593 2:-0.45298621 3:-0.71959066 
0 0 0 1 0 1:0.63050783 2:0.28202918 3:-0.039570879 
0 0 0 1 0 1:0.84084886 2:0.51413929 3:0.33134899 
0 0 0 1 0 1:0.63050783 2:0.20465913 3:-0.039570879 
0 0 0 1 0 1:0.42016673 2:0.049919058 3:-0.28685078 
-0.05647774826017739 0.02957956930912964 0.5425405338689493 0.7259341042666417 0.05930673341944527 1:3.5752828 2:3.4155159 3:5.1533074 
-0 -0 0 0 1 1:-0.84187967 2:-0.80115139 3:-0.47231072 
-0 -0 0 0 1 1:-0.80682284 2:-0.76246637 3:-0.41049075 
-0 -0 0 0 1 1:-0.84187967 2:-0.80115139 3:-0.47231072 
-0 -0 0 0.6880765085600272 1 1:-0.80682284 2:-0.76246637 3:-0.41049075 
-0 -0 0 0 1 1:-0.84187967 2:-0.80115139 3:-0.47231072 
-0 -0 0 0 1 1:-0.84187967 2:-0.80115139 3:-0.47231072 
-0 -0 0 1 1 1:-0.80682284 2:-0.76246637 3:-0.41049075 
-0 -0 0 0 1 1:-0.84187967 2:-0.80115139 3:-0.47231072 
-0 -0 0 1 1 1:-0.80682284 2:-0.76246637 3:-0.41049075 
-0 -0 0 0 1 1:-0.84187967 2:-0.80115139 3:-0.47231072 
-0 -0 0 0 1 1:-0.84187967 2:-0.80115139 3:-0.47231072 
-0 -0 0 0 1 1:-0.84187967 2:-0.80115139 3:-0.47231072 
-0 -0 0 0 1 1:-0.84187967 2:-0.80115139 3:-0.47231072 
-0 -0 0 0 1 1:-0.84187967 2:-0.80115139 3:-0.47231072 
-0 -0 0 0 1 1:-0.84187967 2:-0.80115139 3:-0.47231072 
-0 -0 0 1 1 1:-0.80682284 2:-0.76246637 3:-0.41049075 
-0 -0 0 0 1 1:-0.84187967 2:-0.80115139 3:-0.47231072 
-0 -0 0 1 1 1:-0.80682284 2:-0.76246637 3:-0.41049075 
-0 -0 0 0 1 1:-0.84187967 2:-0.80115139 3:-0.47231072 
-0 -0 0 1 1 1:-0.80682284 2:-0.76246637 3:-0.41049075 
-0 -0 0 1 1 1:-0.80682284 2:-0.76246637 3:-0.41049075 
-0 -0 0 1 1 1:-0.80682284 2:-0.76246637 3:-0.41049075 
-0 -0 0 1 1 1:-0.80682284 2:-0.76246637 3:-0.41049075 
-0 -0 0 1 1 1:-0.80682284 2:-0.76246637 3:-0.41049075 
-0 -0 0 1 1 1:-0.80682284 2:-0.76246637 3:-0.41049075 
-0 -0 0 1 1 1:-0.80682284 2:-0.76246637 3:-0.41049075 
-0 -0 0 1 1 1:-0.80682284 2:-0.76246637 3:-0.41049075 
-0 -0 0 1 1 1:-0.80682284 2:-0.76246637 3:-0.41049075 
-0 -0 0 1 1 1:-0.80682284 2:-0.76246637 3:-0.41049075 
-0 -0 0 1 1 1:-0.80682284 2:-0.76246637 3:-0.41049075 
-0 -0 0 1 0 1:-0.80682284 2:-0.76246637 3:-0.41049075 
-0 -0 0 1 0 1:-0.80682284 2:-0.76246637 3:-0.41049075 
-0 -0 0 1 0 1:-0.80682284 2:-0.76246637 3:-0.41049075 
-0 -0 0 1 0 1:-0.80682284 2:-0.76246637 3:-0.41049075 
-0 -0 0 0 1 1:-0.84187967 2:-0.80115139 3:-0.47231072 
-0 -0 0 1 0 1:-0.80682284 2:-0.76246637 3:-0.41049075 
-0 -0 0 0 1 1:-0.84187967 2:-0.80115139 3:-0.47231072 
-0 -0 0 1 0 1:-0.80682284 2:-0.76246637 3:-0.41049075 
-0 -0 0 0 1 1:-0.84187967 2:-0.80115139 3:-0.47231072 
-0 -0 0 0 1 1:-0.84187967 2:-0.80115139 3:-0.47231072 
-0 -0 0 0 1 1:-0.84187967 2:-0.80115139 3:-0.47231072 
-0 -0 0 1 0 1:-0.80682284 2:-0.76246637 3:-0.41049075 
-0 -0 0 0 1 1:-0.84187967 2:-0.80115139 3:-0.47231072 
-0 -0 0 1 0 1:-0.80682284 2:-0.76246637 3:-0.41049075 
-0 -0 0 0 1 1:-0.84187967 2:-0.80115139 3:-0.47231072 
-0.2264024234417826 -0 0 1 0 1:-0.80682284 2:-0.76246637 3:-0.41049075 
-0 -0 0 0 1 1:-0.84187967 2:-0.80115139 3:-0.47231072 
-0 -0 0 0 1 1:-0.84187967 2:-0.80115139 3:-0.47231072 
-0 -0 0 0 1 1:-0.8769365 2:-0.83983642 3:-0.53413069 
-0 -0 0 0 1 1:-0.84187967 2:-0.80115139 3:-0.47231072 
-0 -0 0 0 1 1:-0.84187967 2:-0.80115139 3:-0.47231072 
-0 -0 0 0 1 1:-0.8769365 2:-0.83983642 3:-0.53413069 
-0 -0 0 0 1 1:-0.84187967 2:-0.80115139 3:-0.47231072 
-0 -0 0 0 1 1:-0.8769365 2:-0.83983642 3:-0.53413069 
-0 -0 0 0 1 1:-0.84187967 2:-0.80115139 3:-0.47231072 
-0 -0 0 0 1 1:-0.8769365 2:-0.83983642 3:-0.53413069 
-1 -0 0 1 0 1:-0.80682284 2:-0.76246637 3:-0.41049075 
-0 -0 0 0 1 1:-0.8769365 2:-0.83983642 3:-0.53413069 
-0 -0 0 0 1 1:-0.84187967 2:-0.80115139 3:-0.47231072 
-0 -0 0 0 1 1:-0.8769365 2:-0.83983642 3:-0.53413069 
-1 -0.02957956930912964 0.1442126373605806 1 0.1929446478767929 1:-0.80682284 2:-0.76246637 3:-0.41049075 
-0 -0 0 0 1 1:-0.8769365 2:-0.83983642 3:-0.53413069 
-0 -0 0 0 1 1:-0.8769365 2:-0.83983642 3:-0.53413069 
-0 -0 0 0 1 1:-0.84187967 2:-0.80115139 3:-0.47231072 
-0 -0 0 0 1 1:-0.8769365 2:-0.83983642 3:-0.53413069 
-0 -0 0 0 1 1:-0.84187967 2:-0.80115139 3:-0.47231072 
-0 -0 0 0 1 1:-0.8769365 2:-0.83983642 3:-0.53413069 
-0 -0 0 0 1 1:-0.8769365 2:-0.83983642 3:-0.53413069 
-0 -0 0 0 1 1:-0.8769365 2:-0.83983642 3:-0.53413069 
-0 -0 0 0 1 1:-0.84187967 2:-0.80115139 3:-0.47231072 
-0 -0 0 0 1 1:-0.8769365 2:-0.83983642 3:-0.53413069 
-0 -0 0 0 1 1:-0.8769365 2:-0.83983642 3:-0.53413069 
-0 -0 0 0 1 1:-0.8769365 2:-0.83983642 3:-0.53413069 
-0 -0 -0 1 0 1:2.2431226 2:1.5973198 3:2.0004883 
-0 -0 -0 0.6473111877447796 0 1:2.2431226 2:1.6360049 3:2.1241283 
-0 -0.5425405338689493 -0 0 0 1:3.084487 2:2.4870753 3:3.5459878 
-0 -0 -0 1 0 1:2.1028953 2:1.4812648 3:2.0004883 
-0 -0 -0 1 0 1:2.2431226 2:1.713375 3:2.2477684 
-0 -0 -0 1 0 1:2.2431226 2:1.7520599 3:2.2477684 
-0 -0 -0 1 0 1:2.0327816 2:1.3265247 3:1.7532085 
-1 -0 -0.1442126373605806 1 0.7110767277986181 1:1.8224405 2:1.1717846 3:1.3822886 
-0 -0 -0 1 0 1:2.1379521 2:1.4812648 3:1.9386684 
-0 -0 -0 1 0 1:2.1730089 2:1.5199498 3:1.8768485 
-0 -0 -0 -1 0 1:1.6822132 2:1.7520599 3:1.8768485 
-0 -0 -1 -0 1 1:-1.4378461 2:-1.5361668 3:-0.96687055 
-0 -0 -1 -0 1 1:0.13971198 2:0.35939923 3:0.51680893 
-0 -0 -1 -0 1 1:-0.70165229 2:-0.49167123 3:-0.28685078 
-0.5449066479862896 -0 -1 -0 1 1:-1.1924481 2:-1.1106316 3:-1.0286906 
-1 -0 -0 -0 0 1:1.1213037 2:1.2491547 3:0.51680893 
-1 -0 -1 -0 1 1:-1.0522207 2:-1.1493165 3:-0.90505058 
-0 -0 -1 -0 1 1:-1.1924481 2:-1.2266866 3:-0.78141063 
-1 -0 -0.0977878384780632 -0 1 1:-0.35108384 2:-0.22087608 3:-0.65777063 
-0 -0 -0 -1 0 1:1.6822132 2:1.3265247 3:1.6913885 
-0 -0 -1 -0 1 1:-0.17579962 2:-0.14350604 3:0.022249099 
-1 -0 -1 -0 1 1:-1.1223344 2:-1.1106316 3:-0.96687055 
-0 -0 -1 -0 1 1:0.56039411 2:0.78493446 3:1.0731888 
-0 -0 -1 -0 1 1:-0.28097016 2:-0.22087608 3:0.26952901 
-1 -0 -0 -0 0 1:1.4718721 2:1.5586349 3:0.94954878 
-0 -0 -1 -0 1 1:-0.59648174 2:-0.33693114 3:-0.34867078 
-1 -0 -0 -0 0 1:0.91096258 2:0.86230451 3:0.45498896 
-1 -0 -1 -0 1 1:-0.91199332 2:-0.91720647 3:-1.4614304 
-0 -0 -1 -0 1 1:-1.227505 2:-1.2653717 3:-0.71959066 
-0 -0 -0 -1 0 1:1.7873837 2:1.945485 3:1.9386684 
-0 -0 -1 -0 1 1:0.069598287 2:0.32071421 3:0.39316896 
-0 -0 -1 -0 1 1:-1.227505 2:-1.2653717 3:-0.84323061 
-0 -0 -0.590288670081964 -0.8161282472725594 1 1:1.1914173 2:1.3265247 3:2.0004883 
-0 -0 -1 -0 1 1:-0.45625436 2:-0.37561616 3:-0.28685078 
-1 -0 -0 -0 0 1:1.1563605 2:1.0170445 3:0.70226884 
-0 -0 -0 -0 0.1680473889083299 1:0.17476882 2:0.32071421 3:0.022249099 
-0 -0 -1 -0 1 1:-0.98210704 2:-0.95589149 3:-0.71959066 
-1 -0 -1 -0 1 1:-0.77176595 2:-0.76246637 3:-0.65777063 
-0 -0 -1 -0 1 1:-1.2625618 2:-1.2266866 3:-0.90505058 
-1 -0 -0 -0 0 1:0.84084886 2:0.66887939 3:-0.039570879 
-0 -0 -0 -1 0 1:1.7873837 2:1.790745 3:1.5059285 
-1 -0 -0 -1 0 1:1.8925542 2:1.5586349 3:1.0731888 
-0 -0.7259341042666417 -0 -1 0 1:3.1195438 2:2.4870753 3:3.8550878 
-0.2289449536247972 -0 -0 -0 0 1:1.3667015 2:1.4425797 3:0.88772881 
-1 -0 -0 -0 0 1:1.4368153 2:1.5586349 3:0.76408881 
-0 -0 -1 -0 1 1:-1.2976186 2:-1.1880016 3:-0.71959066 
-1 -0 -0 -0 0 1:1.1213037 2:1.2491547 3:0.64044887 
-1 -0 -0 -0 0 1:1.5419858 2:1.2878397 3:0.76408881 
-0 -0 -1 -0 1 1:-0.94705021 2:-0.91720647 3:-0.78141063 
-0 -0 -0 -0.2641848219965675 0 1:1.8925542 2:1.945485 3:1.4441086 
-0 -0 -0 -1 0 1:1.8925542 2:1.82943 3:1.5059285 
-1 -0 -0 -0 0 1:1.71727 2:1.7520599 3:1.1968287 
-1 -0 -1 -0 1 1:-1.2976186 2:-1.3427416 3:-0.96687055 
-1 -0 -0 -0.5669981184756526 0 1:1.4718721 2:0.97835952 3:0.70226884 
-0 -0 -1 -0 1 1:-0.59648174 2:-0.45298621 3:-0.59595066 
-1 -0 -1 -0 1 1:-1.4378461 2:-1.5748518 3:-1.1523305 
-1 -0 -1 -0 1 1:0.034541443 2:-0.25956109 3:-0.22503081 
-0.07915660278938391 -0 -1 -0 1 1:-1.1924481 2:-1.2653717 3:-0.84323061 
-0 -0 -1 -0 -1 1:-1.227505 2:-1.3814267 3:-1.3377904 
-1 -0 -1 -0 -1 1:-0.45625436 2:-0.45298621 3:-0.28685078 
-0 -0 -1 -0 -0 1:-0.49131122 2:-0.60772628 3:0.51680893 
-0 -0 -1 -0 -0.7693663640608858 1:-1.3326755 2:-1.4201117 3:-1.3996104 
-0 -0 -1 -0 -1 1:-0.70165229 2:-0.76246637 3:-0.47231072 
-0 -0 -1 -0 -1 1:-0.84187967 2:-0.83983642 3:-0.65777063 
-0 -0 -1 -0 -0 1:-0.42119753 2:-0.41430119 3:0.33134899 
-0 -0 -1 -0 -0.3986810248474447 1:-0.00051540026 2:0.049919058 3:1.0731888 
-0 -0 -1 -0 -1 1:-0.035572246 2:0.049919058 3:0.94954878 
-0.1186977637415753 -0.05930673341944527 -1 -0.7110767277986181 -1 1:0.31499621 2:0.43676925 3:1.3822886 
-0.3822968586854262 -0 -1 -0 -1 1:-0.84187967 2:-0.76246637 3:-0.71959066 
-0 -0 -1 -0 -0 1:-1.0171639 2:-0.99457645 3:-0.65777063 
-0 -0 -1 -0 -0 1:-1.5079597 2:-1.5361668 3:-1.5232503 
-0 -0 -1 -0 -1 1:-0.66659546 2:-0.6464113 3:-0.41049075 
-0 -0 -1 -0 -0 1:-0.31602699 2:-0.22087608 3:0.5786289 
-0 -0 -1 -0 -1 1:-0.73670912 2:-0.68509632 3:-0.28685078 
-0 -0 -1 -0 -0 1:-0.8769365 2:-0.87852144 3:-0.41049075 
-0 -0 -0.1929446478767929 -0 -0 1:-1.3677323 2:-1.4587967 3:-1.1523305 
-0 -0 -1 -0 -0 1:-1.3677323 2:-1.3814267 3:-1.2141504 
-0 -0 -1 -0 -0 1:-1.1573913 2:-1.2266866 3:-0.84323061 
-1 -0 -1 -0 -1 1:-0.56142491 2:-0.49167123 3:-0.47231072 
-0 -0 -1 -0 -0 1:-0.8769365 2:-0.87852144 3:-0.22503081 
-0 -0 -1 -0 -0 1:-1.2625618 2:-1.3040566 3:-0.84323061 
-0 -0 -1 -0 -0 1:-1.3677323 2:-1.3814267 3:-1.2759705 
-0 -0 -1 -0 -1 1:-1.4378461 2:-1.5361668 3:-1.6468903 
-0 -0 -1 -0 -1 1:-1.1223344 2:-1.1493165 3:-1.0905105 
-0 -0 -1 -0 -0 1:-0.94705021 2:-0.91720647 3:-0.53413069 
-0 -0 -1 -0 -0 1:-0.63153857 2:-0.60772628 3:0.084069073 
-0 -0 -1 -0 -1 1:-0.98210704 2:-1.0332615 3:-0.78141063 
-0 -0 -1 -0 -0 1:-1.1223344 2:-1.2266866 3:-0.71959066 
-0 -0 -1 -0 -0 1:-0.17579962 2:-0.14350604 3:0.82590884 
-0 -0 -1 -0 -0 1:-0.52636808 2:-0.53035623 3:0.26952901 
-0 -0 -1 -0 -1 1:-0.84187967 2:-0.80115139 3:-0.47231072 
-0 -0 -1 -0 -0 1:-1.3677323 2:-1.4201117 3:-1.0905105 
-0 -0 -1 -0 -0 1:-1.4027891 2:-1.4201117 3:-1.3377904 
-0 -0 -1 -0 -1 1:-0.8769365 2:-0.91720647 3:-0.59595066 
-0 -0 -1 -0 -0 1:-0.28097016 2:-0.25956109 3:0.5786289 
-0 -0 -1 -0 -0 1:-1.4027891 2:-1.4587967 3:-1.2141504 
-0 -0 -1 -0 -1 1:-0.94705021 2:-0.95589149 3:-0.84323061 
-0 -0 -1 -0 -0 1:-0.70165229 2:-0.72378135 3:-0.16321084 
-0 -0 -1 -0 -0 1:-0.73670912 2:-0.72378135 3:-0.22503081 
-0 -0 -1 -0 -0 1:-1.1223344 2:-1.1880016 3:-0.78141063 
-0 -0 -1 -0 -0 1:-1.227505 2:-1.2266866 3:-1.0286906 
-0 -0 -1 -0 -1 1:-1.0171639 2:-1.0719465 3:-0.84323061 
-0 -0 -1 -0 -0 1:-1.3326755 2:-1.3814267 3:-1.0905105 
-0 -0 -1 -0 -1 1:-1.1924481 2:-1.1880016 3:-1.2141504 
-0 -0 -1 -0 -0 1:-1.0872775 2:-1.1106316 3:-0.59595066 
-1 -0 -1 -0 -1 1:-0.45625436 2:-0.41430119 3:-0.039570879 
-0 -0 -1 -0 -1 1:-0.59648174 2:-0.53035623 3:-0.16321084 
-0 -0 -1 -0 -1 1:-0.94705021 2:-0.95589149 3:-0.90505058 
-0 -0 -1 -0 -1 1:-1.227505 2:-1.2266866 3:-1.1523305 
-0 -0 -1 -0 -1 1:-0.59648174 2:-0.53035623 3:0.022249099 
-0 -0 -1 -0 -1 1:-0.28097016 2:-0.18219106 3:0.64044887 
-0 -0 -1 -0 -0 1:-0.66659546 2:-0.68509632 3:-0.039570879 
-0 -0 -1 -0 -0 1:-1.227505 2:-1.2653717 3:-0.84323061 
-0 -0 -1 -0 -1 1:-0.84187967 2:-0.80115139 3:-0.47231072 
-0 -0 -1 -0 -0 1:-0.98210704 2:-0.95589149 3:-0.65777063 
-0 -0 -1 -0 -0 1:-0.77176595 2:-0.72378135 3:-0.10139086 
-0 -0 -1 -0 -1 1:0.069598287 2:0.20465913 3:1.1968287 
-0 -0 -1 -0 -0 1:-1.3326755 2:-1.3427416 3:-1.2141504 
-0 -0 -1 -0 -0 1:-1.2976186 2:-1.3427416 3:-1.0286906 
-0 -0 -1 -0 -0 1:-1.0522207 2:-1.0719465 3:-0.53413069 
-0 -0 -1 -0 -1 1:-0.42119753 2:-0.33693114 3:0.14588906 
